digraph Tree {
node [shape=box] ;
0 [label="fuel-system <= 5.5\nentropy = 0.686\nsamples = 164\nvalue = [134, 30]"] ;
1 [label="city-mpg <= 6.5\nentropy = 0.467\nsamples = 141\nvalue = [127, 14]"] ;
0 -> 1 [labeldistance=2.5, labelangle=45, headlabel="True"] ;
2 [label="curb-weight <= 163.5\nentropy = 0.746\nsamples = 66\nvalue = [52, 14]"] ;
1 -> 2 ;
3 [label="horsepower <= 2.5\nentropy = 0.644\nsamples = 61\nvalue = [51, 10]"] ;
2 -> 3 ;
4 [label="body-style <= 0.5\nentropy = 0.722\nsamples = 5\nvalue = [1, 4]"] ;
3 -> 4 ;
5 [label="entropy = 0.0\nsamples = 1\nvalue = [1, 0]"] ;
4 -> 5 ;
6 [label="entropy = 0.0\nsamples = 4\nvalue = [0, 4]"] ;
4 -> 6 ;
7 [label="width <= 6.5\nentropy = 0.491\nsamples = 56\nvalue = [50, 6]"] ;
3 -> 7 ;
8 [label="compression-ratio <= 3.5\nentropy = 0.971\nsamples = 10\nvalue = [6, 4]"] ;
7 -> 8 ;
9 [label="entropy = 0.0\nsamples = 6\nvalue = [6, 0]"] ;
8 -> 9 ;
10 [label="entropy = 0.0\nsamples = 4\nvalue = [0, 4]"] ;
8 -> 10 ;
11 [label="bore <= 23.0\nentropy = 0.258\nsamples = 46\nvalue = [44, 2]"] ;
7 -> 11 ;
12 [label="entropy = 0.0\nsamples = 32\nvalue = [32, 0]"] ;
11 -> 12 ;
13 [label="make <= 13.5\nentropy = 0.592\nsamples = 14\nvalue = [12, 2]"] ;
11 -> 13 ;
14 [label="entropy = 0.0\nsamples = 2\nvalue = [0, 2]"] ;
13 -> 14 ;
15 [label="entropy = 0.0\nsamples = 12\nvalue = [12, 0]"] ;
13 -> 15 ;
16 [label="peak-rpm <= 2.5\nentropy = 0.722\nsamples = 5\nvalue = [1, 4]"] ;
2 -> 16 ;
17 [label="entropy = 0.0\nsamples = 1\nvalue = [1, 0]"] ;
16 -> 17 ;
18 [label="entropy = 0.0\nsamples = 4\nvalue = [0, 4]"] ;
16 -> 18 ;
19 [label="entropy = 0.0\nsamples = 75\nvalue = [75, 0]"] ;
1 -> 19 ;
20 [label="highway-mpg <= 25.0\nentropy = 0.887\nsamples = 23\nvalue = [7, 16]"] ;
0 -> 20 [labeldistance=2.5, labelangle=-45, headlabel="False"] ;
21 [label="make <= 8.5\nentropy = 0.503\nsamples = 18\nvalue = [2, 16]"] ;
20 -> 21 ;
22 [label="entropy = 0.0\nsamples = 1\nvalue = [1, 0]"] ;
21 -> 22 ;
23 [label="height <= 32.0\nentropy = 0.323\nsamples = 17\nvalue = [1, 16]"] ;
21 -> 23 ;
24 [label="entropy = 0.0\nsamples = 15\nvalue = [0, 15]"] ;
23 -> 24 ;
25 [label="normalized-losses <= 6.0\nentropy = 1.0\nsamples = 2\nvalue = [1, 1]"] ;
23 -> 25 ;
26 [label="entropy = 0.0\nsamples = 1\nvalue = [0, 1]"] ;
25 -> 26 ;
27 [label="entropy = 0.0\nsamples = 1\nvalue = [1, 0]"] ;
25 -> 27 ;
28 [label="entropy = 0.0\nsamples = 5\nvalue = [5, 0]"] ;
20 -> 28 ;
}